{
  "tier": "exploratory-mechanism-wave -- NOT a confirmatory bar",
  "design_ref": "FROZEN_BIAS_LM_DESIGN.md sec 12.3.3 (H4 checkpoint parameter-diff)",
  "corpus": "openr1-mix-ext",
  "seed": 0,
  "step_early": 1000,
  "step_late": 20000,
  "primary_k_conv1d": {
    "mode": "k_conv1d",
    "keys": [
      "blocks.0.mixer.k_conv1d.weight",
      "blocks.1.mixer.k_conv1d.weight"
    ],
    "arm1_natural_drift": {
      "frobenius_norm": 3.791138017304195,
      "cosine_to_b_global": {
        "blocks.0.mixer.k_conv1d.weight": {
          "shape": [
            64,
            1,
            4
          ],
          "structurally_comparable": true,
          "cosine_per_column": [
            -0.1962500841931866,
            -0.026653020217991742,
            -0.14629400336394127,
            0.11826451032690206
          ],
          "mean_abs_cosine": 0.12186540452550541,
          "max_abs_cosine": 0.1962500841931866
        },
        "blocks.1.mixer.k_conv1d.weight": {
          "shape": [
            64,
            1,
            4
          ],
          "structurally_comparable": true,
          "cosine_per_column": [
            0.06291350155108844,
            -0.18120258168263217,
            -0.05580111284496928,
            0.02839608856840269
          ],
          "mean_abs_cosine": 0.08207832116177315,
          "max_abs_cosine": 0.18120258168263217
        }
      }
    },
    "arm2_drift_vs_arm1_step_early": {
      "frobenius_norm": 5.1157472730753915,
      "cosine_to_b_global": {
        "blocks.0.mixer.k_conv1d.weight": {
          "shape": [
            64,
            1,
            4
          ],
          "structurally_comparable": true,
          "cosine_per_column": [
            -0.11896360111573198,
            0.1386627885617409,
            -0.00988743049624276,
            0.058953050917196284
          ],
          "mean_abs_cosine": 0.08161671777272798,
          "max_abs_cosine": 0.1386627885617409
        },
        "blocks.1.mixer.k_conv1d.weight": {
          "shape": [
            64,
            1,
            4
          ],
          "structurally_comparable": true,
          "cosine_per_column": [
            0.09135255244995927,
            0.028262664219316638,
            0.12843800177026346,
            -0.011165505849390382
          ],
          "mean_abs_cosine": 0.06480468107223243,
          "max_abs_cosine": 0.12843800177026346
        }
      }
    },
    "arm2prime_drift_vs_arm1_step_early": {
      "frobenius_norm": 4.0941436927015085,
      "cosine_to_b_global": {
        "blocks.0.mixer.k_conv1d.weight": {
          "shape": [
            64,
            1,
            4
          ],
          "structurally_comparable": true,
          "cosine_per_column": [
            -0.17963438454765707,
            -0.1524329670939233,
            -0.37395081025053745,
            -0.005132322146092556
          ],
          "mean_abs_cosine": 0.1777876210095526,
          "max_abs_cosine": 0.37395081025053745
        },
        "blocks.1.mixer.k_conv1d.weight": {
          "shape": [
            64,
            1,
            4
          ],
          "structurally_comparable": true,
          "cosine_per_column": [
            0.027563993669093,
            0.03942202284667153,
            0.04535086331223083,
            0.01152293367774586
          ],
          "mean_abs_cosine": 0.030964953376435306,
          "max_abs_cosine": 0.04535086331223083
        }
      }
    },
    "norm_bigger_reading_ONLY": {
      "note": "sec 12.3.3: norm comparison ALONE is NOT diagnostic of compensation -- directionality (the cosine_to_b_global block above) is. Reported for completeness, not as the pre-registered reading.",
      "arm2_norm_gt_arm2prime_norm": true
    }
  },
  "secondary_block0_full": {
    "mode": "block0_full",
    "keys": [
      "blocks.0.ffn.fc1.weight",
      "blocks.0.ffn.fc2.weight",
      "blocks.0.mixer.b_proj.weight",
      "blocks.0.mixer.k_conv1d.weight",
      "blocks.0.mixer.k_proj.weight",
      "blocks.0.mixer.o_norm.weight",
      "blocks.0.mixer.o_proj.weight",
      "blocks.0.mixer.q_conv1d.weight",
      "blocks.0.mixer.q_proj.weight",
      "blocks.0.mixer.v_conv1d.weight",
      "blocks.0.mixer.v_proj.weight",
      "blocks.0.norm1.weight",
      "blocks.0.norm2.weight"
    ],
    "arm1_natural_drift": {
      "frobenius_norm": 22.399999769813395,
      "cosine_to_b_global": {
        "blocks.0.ffn.fc1.weight": {
          "shape": [
            1024,
            256
          ],
          "structurally_comparable": false,
          "note": "no axis of length d_state=64"
        },
        "blocks.0.ffn.fc2.weight": {
          "shape": [
            256,
            1024
          ],
          "structurally_comparable": false,
          "note": "no axis of length d_state=64"
        },
        "blocks.0.mixer.b_proj.weight": {
          "shape": [
            1,
            256
          ],
          "structurally_comparable": false,
          "note": "no axis of length d_state=64"
        },
        "blocks.0.mixer.k_conv1d.weight": {
          "shape": [
            64,
            1,
            4
          ],
          "structurally_comparable": true,
          "cosine_per_column": [
            -0.1962500841931866,
            -0.026653020217991742,
            -0.14629400336394127,
            0.11826451032690206
          ],
          "mean_abs_cosine": 0.12186540452550541,
          "max_abs_cosine": 0.1962500841931866
        },
        "blocks.0.mixer.k_proj.weight": {
          "shape": [
            64,
            256
          ],
          "structurally_comparable": true,
          "cosine_per_column": [
            0.08332407614889313,
            0.12156583925213098,
            0.0036813194795549333,
            0.1504068131128022,
            -0.08892745786347205,
            -0.09833698825376554,
            -0.20389806594548732,
            0.20034918408770896,
            0.027283265177294874,
            0.3032330240281271,
            0.10235088306200135,
            0.016313143745304272,
            -0.05997298649612191,
            0.03460057112969331,
            -0.1180936776356886,
            -0.10072097644800536,
            0.033440168611818845,
            0.10773218043784863,
            -0.22623918888420372,
            0.031230432504117073,
            -0.13860647570129161,
            0.19995061716265694,
            -0.020931979589133183,
            -0.2020730047989442,
            0.14961029593926933,
            -0.010207420224725247,
            0.058770910121483555,
            -0.2404124244803043,
            0.07218559160306139,
            -0.0906575367481794,
            -0.01253999351100338,
            0.015216846596846443,
            -0.27750731720429656,
            -0.036957993978287564,
            -0.17313610095831722,
            0.10776067840554915,
            -0.08074812833993848,
            0.060462393243667104,
            -0.20064190375987206,
            -0.30433909422498945,
            0.05220583154238027,
            -0.058588497979002556,
            0.030884246140748674,
            0.14373977474585173,
            0.06600818134152053,
            -0.144506645527635,
            0.0689282417468,
            0.17026750806696359,
            0.09199419176986884,
            -0.12643772103771725,
            -0.03903363590251236,
            0.009890354238274923,
            -0.14420002247297112,
            -0.04223150432109055,
            -0.007361339364364911,
            -0.05639012891206372,
            0.12729438077616187,
            -0.07193231388478037,
            0.08710887083525087,
            0.24081440810378524,
            0.04941521070414823,
            -0.1288585967547645,
            0.1648373332221378,
            0.08603018049446995,
            -0.01711173987415475,
            0.08898415123610956,
            0.16416501173581638,
            0.09297249210475339,
            -0.012434727009003816,
            -0.09460619382458439,
            -0.07677423257910942,
            0.012876717004295862,
            0.008692617684133538,
            -0.07910451936584288,
            -0.04701702059859184,
            0.18367299374930857,
            -0.07694917822181464,
            0.025152464416113914,
            -0.07317877557468444,
            0.07623731054627253,
            0.1932815870320925,
            0.18347076670134121,
            0.09117270261162738,
            0.038398180634344775,
            0.1888093459546751,
            -0.10450282118244915,
            -0.1352521460565532,
            0.1022817764030743,
            0.04769681699798688,
            0.048041057330260706,
            0.13320933382857014,
            -0.13941983508787315,
            0.07574001080628352,
            0.07130158232292833,
            0.09760038607387427,
            -0.00464005668475303,
            -0.09933019083016757,
            -0.01429235597868083,
            -0.04057580103371007,
            -0.09220466036742632,
            -0.17729974206689522,
            -0.03731931095395241,
            -0.04336050616470692,
            -0.03552980221662326,
            -0.38312168578719524,
            0.14311168159765483,
            -0.05457660352586391,
            -0.2572566376346851,
            0.07700470890473031,
            0.05505733404129181,
            0.1812769000744711,
            -0.15257244167530254,
            -0.055884029853593455,
            -0.12049841322455339,
            -0.12210713279746525,
            0.016708302097201123,
            -0.07821074011543487,
            -0.2096963948900358,
            0.058577323711021076,
            0.2424533606775218,
            -0.06198160923548873,
            -0.2771292992214098,
            -0.2754926405210696,
            -0.04614268015128537,
            -0.04280417529124172,
            0.03236540976637111,
            0.07248528094147252,
            -0.16604863669163228,
            0.03840295024861113,
            0.013825524805324079,
            -0.11889114865968668,
            -0.09697229620583148,
            0.01692197383420028,
            0.14260611579839227,
            0.010299279636828971,
            -0.0508432341377131,
            0.16345250610164588,
            0.0959882268234856,
            -0.15596947843848405,
            0.053891209083681085,
            0.1477842112061786,
            0.1817863562020558,
            -0.19256969697397783,
            0.07444116381841885,
            0.05606586455136727,
            0.17362178545338103,
            0.11416549531075347,
            -0.055101387168858165,
            0.16614341297597862,
            -0.17175832048851986,
            0.07175554030227153,
            0.25422809626879284,
            0.10211442731207825,
            0.0072201161923434115,
            -0.19789840935716307,
            -0.008918007252006034,
            -0.1765212948008216,
            0.21067518926052098,
            -0.343056606527776,
            0.18065211168936446,
            -0.2504534154904099,
            0.14295867580687935,
            0.15851558786052372,
            0.08626566566806662,
            0.2792493747495868,
            -0.0652528051468854,
            0.28893102526511744,
            -0.05775587338939454,
            0.1553899761634705,
            -0.0900818837719291,
            0.10249349837635756,
            0.21591225143811732,
            -0.1856880938715866,
            -0.02961069108285448,
            -0.041760562070327766,
            -0.1512726924565884,
            0.02269843646337202,
            0.24745085123705982,
            0.04268931281736786,
            -0.08636005646734345,
            0.29430903180743767,
            0.03054603745041242,
            -0.13327002870813082,
            0.2708457515336373,
            0.2867349537473627,
            0.049451114833514366,
            0.11890739717511684,
            -0.06671445050178458,
            0.16795884021535465,
            0.02508803683880059,
            -0.11898800062421253,
            -0.04592877933221903,
            -0.21375710958161467,
            0.0371941278213446,
            -0.008958825686834855,
            -0.10534574325252809,
            0.14940825590709547,
            0.05812393131649964,
            0.018918738836806056,
            0.08846191129442753,
            -0.0039003531486449835,
            0.027178393227483402,
            0.03259790060231509,
            -0.022945513924390044,
            0.10733290384064312,
            -0.24982520804607922,
            0.17866519356937444,
            0.18983744874638764,
            -0.02135952198898695,
            0.06993949775187858,
            -0.14571002186368198,
            -0.02416491167199287,
            0.10677117933196079,
            -0.0414268733516668,
            0.07954056206527203,
            0.1319472792577089,
            0.11882100281666852,
            0.13276938902823546,
            -0.09778445905985386,
            -0.2242127019674231,
            -0.07214372249470824,
            -0.03123602495651242,
            0.28382931955916624,
            -0.11495374029922774,
            -0.20765017901343508,
            -0.05041342103128918,
            0.0456488724087538,
            -0.003821528470530472,
            -0.050765429213181085,
            -0.023375049528682582,
            -0.12139088077782353,
            0.17038770212667836,
            0.04463765195356287,
            -0.14339212997397413,
            0.06561046492554534,
            -0.003254296305918186,
            -0.12816560765790166,
            0.026170746033834128,
            -0.016336956175930634,
            -0.04432905298810599,
            0.17739890669477568,
            0.08819319209465032,
            0.030914317766488696,
            0.05426882822730237,
            -0.13028132722589744,
            -0.11504059420404429,
            -0.08903130746924943,
            -0.024530764573481502,
            0.14433444553447075,
            0.14236898415141575,
            -0.13400397731258004,
            0.10623291947404837,
            0.12350944178777416,
            0.14675096226046586,
            0.04591799673134559,
            -0.1545415954865596
          ],
          "mean_abs_cosine": 0.10732971209823984,
          "max_abs_cosine": 0.38312168578719524
        },
        "blocks.0.mixer.o_norm.weight": {
          "shape": [
            64
          ],
          "structurally_comparable": true,
          "cosine_per_column": [
            -0.08637444389416613
          ],
          "mean_abs_cosine": 0.08637444389416613,
          "max_abs_cosine": 0.08637444389416613
        },
        "blocks.0.mixer.o_proj.weight": {
          "shape": [
            256,
            64
          ],
          "structurally_comparable": true,
          "cosine_per_column": [
            -0.0690262704580355,
            -0.024900647618905657,
            0.22179315182898976,
            0.21481667087995615,
            0.06727760574834998,
            -0.12404194024693932,
            0.3302268233538922,
            -0.22902071539377475,
            -0.19033022641140487,
            -0.12496795504569014,
            0.15427250037413448,
            -0.14917585994237959,
            0.26365696176794506,
            -0.04200855786154129,
            0.05656212120550989,
            0.0620015636502253,
            0.06050878472647703,
            -0.02033424727902265,
            -0.13373144940046422,
            -0.133737328398033,
            -0.14176381099465887,
            0.04363771679074247,
            -0.13823549415903766,
            0.2091160055822418,
            0.016403507090945412,
            -0.12016461146438082,
            -0.04546442484067381,
            -0.12532568743345907,
            0.11460285426893231,
            0.06261035834565777,
            -0.08495043879396576,
            -0.2633719499572679,
            0.13550661989041057,
            0.06152364820550471,
            -0.23852378087063392,
            -0.08380224205741581,
            0.002206629675863096,
            0.01675464794857944,
            0.14303721174326306,
            -0.13867578289376753,
            0.027711038984839984,
            -0.06239086632579969,
            -0.15323611549787572,
            0.09957794548782227,
            -0.03349851886726155,
            -0.1947277451446696,
            0.04023715943954622,
            0.020766015406460923,
            0.21621841859690222,
            0.059470897509439485,
            -0.040552588991124905,
            0.3221274987897916,
            0.38920861680656266,
            -0.08273666921781218,
            0.06418420408270642,
            -0.11327970184311609,
            0.015582159911984356,
            0.07476325821109074,
            -0.21141371789888852,
            0.04008546369223406,
            0.14949517856807001,
            0.009747772883164588,
            0.1400751355195306,
            0.15463879669982183,
            -0.10797827619857114,
            -0.016164255591909808,
            0.005718452282820096,
            0.029825946302407133,
            -0.10771615911629992,
            -0.1602025140598523,
            -0.04324541853532769,
            0.2566981088037852,
            0.03475914816078335,
            0.06572664654252915,
            -0.007700310375695702,
            0.002565618755236862,
            0.10458482463962843,
            0.08450983194972385,
            -0.024013062134590743,
            -0.019099854812810593,
            -0.020725192379159,
            0.09706177462067571,
            0.0880760735610622,
            0.2061200330801171,
            0.23210804221588607,
            0.054736994737863635,
            0.09861260150723065,
            0.06900979570816791,
            0.32107496313551664,
            -0.2914983002595166,
            0.0927880015236345,
            0.1727719596325209,
            -0.021846940451735616,
            -0.14352563933250248,
            -0.15881433992111418,
            -0.08504541046274329,
            -0.12102170372038813,
            -0.05204490724736722,
            0.030650706755872403,
            0.21146185908707693,
            -0.05859253730057179,
            -0.0192671292006932,
            0.07075833243083834,
            -0.07158026900016189,
            -0.19306655234808437,
            0.07010663655255814,
            -0.017779772483968007,
            -0.27172521943571365,
            -0.034159641079721664,
            0.15121968457307974,
            -0.23813655368987213,
            0.0921156242116063,
            -0.046540412071514776,
            0.14162247978182235,
            0.23305519403272693,
            -0.009110074754811093,
            -0.1604157112180878,
            -0.0290118602686522,
            0.1178266773998549,
            -0.057184014234001754,
            0.07821472757787525,
            0.11523653471157388,
            0.13561349300372388,
            0.16062626559236792,
            0.16512472592607688,
            -0.15885587447993604,
            0.13696769327918212,
            0.02849145885483111,
            -0.03847385941974501,
            -0.02911952477337443,
            0.0479543701111709,
            0.034786776639855736,
            0.06240483796019444,
            0.03825711718805113,
            -0.12472138282627156,
            -0.054719023599091435,
            0.14611418589181185,
            0.14375866961858658,
            0.00588182793831706,
            0.20700262700334873,
            0.03870075929341482,
            -0.04865262621557136,
            0.18260922315122224,
            0.09061112901867951,
            -0.06974281146611866,
            -0.2401974478013502,
            0.19403246004947583,
            -0.19867758885848139,
            -0.008215476505895946,
            0.04566411763433721,
            0.41150531128405904,
            0.027774287883271756,
            -0.30165449434690145,
            -0.024102549503994746,
            0.14760325009997616,
            -0.12608192403002041,
            -0.11364792119009215,
            -0.06291924365370594,
            -0.08646478492478796,
            0.175280184200944,
            0.050853454902858274,
            -0.10648600870431724,
            0.05727420655883376,
            0.23822829030841305,
            -0.05720640578488664,
            -0.041735856913543694,
            -0.26260517737281486,
            -0.08829347884657353,
            0.057216794106773834,
            0.14662062256615555,
            -0.0009553463183433566,
            0.07356809413589135,
            0.07917678695134357,
            -0.04994544476970008,
            0.007673174828683012,
            -0.2119480569169905,
            0.23599071719245335,
            -0.18340025585432765,
            -0.02026799346293156,
            -0.14399554468880515,
            0.22014508384731357,
            -0.14289292983355184,
            -0.29759376114345193,
            0.03331267529754225,
            0.039766971304524217,
            0.20123723447737926,
            -0.14341511450245586,
            0.11223815460442312,
            -0.10776337273301836,
            -0.1294011261013121,
            0.0424846858739748,
            -0.10043404109313905,
            -0.0479403141190199,
            -0.06375266257892759,
            -0.22552868027898068,
            -0.06626847715627242,
            0.012854519483016564,
            0.026117112447592874,
            -0.14473608360481383,
            0.17511522247766373,
            -0.10708940777320519,
            -0.23644928968153386,
            -0.12921286608928423,
            0.38767708637556864,
            0.05351240134842938,
            -0.030035670316915813,
            0.18106144385458414,
            0.21702111269311888,
            -0.058827332259751994,
            0.17562902059814384,
            0.17648317434416597,
            0.09803403318306167,
            0.016182939826160092,
            0.10136608053846081,
            0.1107921757734796,
            0.08286074775010188,
            -0.1807983117467431,
            0.06062673500015247,
            -0.10752306143263118,
            -0.05753080078651512,
            -0.14734565028752655,
            -0.11541559987503419,
            -0.08362939604924277,
            0.0012262901413591738,
            -0.08885923354984349,
            -0.3640997742866534,
            0.33790100975456083,
            -0.11368747580220463,
            -0.09210141901815247,
            0.0930716364514815,
            -0.15128213513135114,
            -0.32147787088989244,
            -0.18509016210773266,
            0.09758481812270306,
            0.1520925903158913,
            -0.023891716518513104,
            0.11826750721472537,
            -0.036856523346384326,
            0.07665240385651967,
            0.16521009710559315,
            0.05112051482934278,
            0.15381516115375865,
            0.19066688354958938,
            -0.16041418126886411,
            0.0040919335091639236,
            -0.1231536344159272,
            0.2663428505288976,
            -0.057218829214526014,
            0.0746355154792786,
            0.15300722024658467,
            0.07988657422840031,
            -0.29754464843183365,
            -0.07586195607734511,
            -0.04608271294524532,
            -0.03597068251899075,
            0.011462826103424436
          ],
          "mean_abs_cosine": 0.11470784359373164,
          "max_abs_cosine": 0.41150531128405904
        },
        "blocks.0.mixer.q_conv1d.weight": {
          "shape": [
            64,
            1,
            4
          ],
          "structurally_comparable": true,
          "cosine_per_column": [
            -0.10972423301085943,
            0.08273743814161567,
            -0.024564725776981607,
            0.007196125966240897
          ],
          "mean_abs_cosine": 0.0560556307239244,
          "max_abs_cosine": 0.10972423301085943
        },
        "blocks.0.mixer.q_proj.weight": {
          "shape": [
            64,
            256
          ],
          "structurally_comparable": true,
          "cosine_per_column": [
            -0.024340246171410587,
            0.2814677866355727,
            -0.07409010544893932,
            -0.0973193331367389,
            0.020395006902893566,
            0.04884056598459715,
            0.05343393288396532,
            0.08058864762335723,
            0.1104331907038467,
            -0.06944577214244657,
            0.0469170472751943,
            -0.017681200336261468,
            -0.20013953571780607,
            -0.13109542037082036,
            0.08665988907145174,
            -0.09106593190661154,
            0.027381860696256,
            -0.012882342126690285,
            -0.09746334701352084,
            -0.06883334820697981,
            -0.20247468885177483,
            -0.11810228281141076,
            0.10714548723672704,
            0.026130951362002,
            -0.1975488871688949,
            0.08087735302578733,
            0.12292837149601657,
            -0.15088086449025073,
            0.03480622843173629,
            -0.19631755724905572,
            0.02202283624079194,
            -0.04560134869836148,
            0.12892207112287216,
            -0.24927583682267399,
            -0.02596287302546158,
            0.08936216571694838,
            0.13671825365794418,
            -0.024966912231140097,
            0.13756513323352337,
            0.03569746720720409,
            0.09114199671013819,
            0.08023550123969694,
            -0.06716782428144608,
            -0.03692081992504427,
            -0.014821941634529438,
            0.037721204239315,
            -0.018820750204174383,
            -0.15610548549673983,
            0.006705501138152952,
            -0.1368956792234517,
            -0.1327599533161699,
            0.12342781164258673,
            -0.048541453009752905,
            0.0013014035507350622,
            0.025618933750452343,
            -0.036937970405013065,
            0.24258967326825673,
            0.011163664569336262,
            0.16384924443737345,
            -0.33746069248316074,
            -0.1790725658265074,
            -0.13814311544856334,
            0.04155364868772577,
            0.2668766989722303,
            0.035603277401962494,
            -0.13353375699126238,
            -0.14193841530518234,
            -0.038633621621560636,
            -0.08440861551108397,
            -0.02112415790632798,
            0.1834016380760842,
            -0.025472914895561072,
            0.10197665477128853,
            0.050542980677689094,
            0.22217084117013988,
            0.18111746510104978,
            -0.09141212775441003,
            -0.12009476322624887,
            -0.05951900166726099,
            -0.09262317997998917,
            0.23072544481295,
            -0.17137771574930755,
            0.06523364079466146,
            -0.026781473570860997,
            -0.09936799108063751,
            -0.1582672542179077,
            -0.1672905004339799,
            0.061666268456227635,
            -0.057488240024862386,
            -0.24062775027293767,
            -0.20884101214400877,
            0.028838610513103026,
            -0.06332837035310537,
            0.07564869205489687,
            -0.3200707058006922,
            0.022838161591907612,
            -0.03595959697038946,
            -0.13867645457944455,
            -0.08365877121318856,
            -0.21977990134300754,
            -0.06576527058494341,
            -0.13667026933292917,
            -0.19547158776950024,
            -0.22154817312719552,
            -0.07283238393046257,
            0.19679888173905585,
            0.12964099043359803,
            -0.07981571053727547,
            0.053758773644573515,
            -0.23738079503834278,
            -0.3127945522360059,
            0.020608061826820463,
            -0.17086992192752046,
            -0.18106509639842155,
            -0.06212412817120666,
            0.0625677067042173,
            -0.09571939927208407,
            0.0697908745831345,
            0.10481514358957765,
            -0.11220599061822421,
            -0.23126472671534692,
            -0.0077854808871215195,
            0.10417543944730331,
            -0.0011994900083925901,
            0.10546870557381184,
            0.24019623196558582,
            -0.1699315178857452,
            0.0005566372837572258,
            0.12263277635110403,
            0.17111063610588734,
            0.0016277936620642136,
            -0.10238976711068311,
            -0.063363080861924,
            -0.15667132764402075,
            -0.13888341158029935,
            -0.2497222638156357,
            0.29117039819954293,
            0.33014611116924725,
            0.4141558543104332,
            0.1458263374932366,
            -0.013789653247277225,
            -0.26899403031495267,
            0.034351468769103874,
            0.23968915977437086,
            -0.13354834446806738,
            -0.10558759131208909,
            -0.0039690840479287256,
            -0.2431560341903222,
            -0.16911692804814576,
            -0.18040997395974315,
            -0.14676024713238886,
            0.26579990300439754,
            0.21461208610659138,
            -0.10441483607459345,
            0.1558680141388519,
            0.08188753978461578,
            -0.14350986434282173,
            0.04874743596402619,
            -0.08400709030641358,
            -0.05965306084340491,
            -0.17309293816602733,
            -0.15934760480854993,
            0.05915252863603455,
            0.0789517741375672,
            0.027580274117281308,
            -0.15773613818364152,
            -0.03086378671832975,
            -0.06054841293941661,
            -0.05460886911502106,
            -0.05381944548164298,
            0.30150657854382307,
            0.05274284583687378,
            -0.031657065403221274,
            0.0060333161331550785,
            -0.044134410780595865,
            0.06071140325295942,
            -0.07476528508214798,
            -0.19692946687337332,
            0.14430760195374845,
            0.13404671528652135,
            0.13726048767944474,
            -0.06470345207360095,
            0.06395539300394025,
            0.20120723295127907,
            0.11224702001706638,
            0.03815411608542991,
            0.07272581294206812,
            -0.09297265526431915,
            0.13273757248817766,
            -0.11007035287852458,
            -0.17327504808147423,
            -0.11563043511681147,
            -0.09904961001842344,
            -0.18405103818798896,
            0.008005801726664409,
            -0.20174613178562129,
            0.18607258399484855,
            0.09222217201655436,
            -0.047795868320004875,
            -0.18127216381551506,
            0.25854438995893153,
            0.18993982020297331,
            0.12472670972084317,
            -0.27251691052458377,
            -0.13322264523811056,
            0.2557763555482658,
            -0.07886208767801531,
            -0.06484708354142073,
            0.40731494986791206,
            0.19608818183433263,
            -0.20406105998738924,
            -0.14996461527164784,
            -0.20782959917153546,
            -0.13005168630319036,
            -0.14201126636965217,
            -0.05144790813077482,
            0.13351865926338585,
            -0.06390536779524866,
            0.028165885131941952,
            0.17750923919874645,
            0.0026970334638333304,
            0.17290939502982083,
            -0.03998344434459483,
            0.11945002546158853,
            -0.10186833661937189,
            0.16734226065204577,
            0.13043410546307313,
            0.06610691445895463,
            -0.12342743259694125,
            -0.01488816840029133,
            -0.01487157233935054,
            -0.13391859302715833,
            -0.11151535475907297,
            -0.1458115022957678,
            -0.1613335508722464,
            0.08346065293380182,
            0.04284576843183751,
            -0.24224908439971807,
            -0.02871855820255179,
            0.11733813595656707,
            0.2393784493926703,
            0.14760800027633142,
            0.05756953118202258,
            0.06276536353963623,
            0.039214360927448184,
            0.023122984267453815,
            -0.17238862359267088,
            0.06707318269722383,
            0.09582718284487357,
            0.0568235839347084,
            -0.22617912145477287,
            0.2349851213252275,
            0.039983365325915156,
            -0.015303112829739717,
            -0.06506351088781016,
            -0.12405909175194055
          ],
          "mean_abs_cosine": 0.11615062474169387,
          "max_abs_cosine": 0.4141558543104332
        },
        "blocks.0.mixer.v_conv1d.weight": {
          "shape": [
            64,
            1,
            4
          ],
          "structurally_comparable": true,
          "cosine_per_column": [
            0.21716588690671243,
            -0.018176446221747272,
            -0.2604837955216538,
            -0.034718781860699446
          ],
          "mean_abs_cosine": 0.13263622762770325,
          "max_abs_cosine": 0.2604837955216538
        },
        "blocks.0.mixer.v_proj.weight": {
          "shape": [
            64,
            256
          ],
          "structurally_comparable": true,
          "cosine_per_column": [
            0.12046047448104562,
            0.062096803202728694,
            -0.196406074524122,
            -0.011085278453437564,
            -0.1592515536986014,
            0.05095523293746463,
            -0.12111920306831413,
            -0.0009338815314915445,
            -0.08911952324433996,
            0.08966052352266779,
            0.15101620028497176,
            0.05583372414449103,
            0.08935332997861369,
            0.07665143241779879,
            0.1173986020805935,
            -0.08985048736413054,
            0.006113859306335697,
            0.2266365560454932,
            0.13298700508598152,
            -0.12078156589664596,
            -0.024524305101149488,
            0.09651954944699083,
            -0.007620222391946947,
            0.004238209584177607,
            -0.2594508087387196,
            -0.0036906185027211188,
            0.2536124709214998,
            -0.06870638410400168,
            -0.07503346924004331,
            -0.015451030966508617,
            -0.014737614309455147,
            -0.055415635692779915,
            0.03917458914459456,
            0.1414628110885361,
            -0.011413666146692642,
            -0.1739148902094857,
            0.046100117179107745,
            -0.05907148763484965,
            -0.05637909594134045,
            0.1432638149424241,
            -0.0748745376861763,
            0.2782679931964352,
            0.006901973468573094,
            0.03627749106120933,
            -0.06061981259285331,
            -0.01248750676111412,
            0.1258938737176139,
            0.03801927922846059,
            -0.1402406934068256,
            -0.19847764833357426,
            -0.21923967168122688,
            -0.08685648023946689,
            0.14032522070441,
            -0.10256554872252857,
            0.138972701201711,
            -0.12622698635253707,
            0.21241394380996823,
            0.10669110954287589,
            0.09680216402905073,
            -0.22427474700383015,
            -0.2291788397617465,
            -0.10489004136819731,
            0.19309328989399885,
            -0.1423553965710506,
            -0.006873521532163663,
            -0.04792556786462913,
            0.0426246191210983,
            -0.1161106167582361,
            -0.13353987056690034,
            -0.12054888446316953,
            0.16790739459983606,
            0.103631881464919,
            0.08682358762039065,
            0.16955797361450897,
            0.065797005112114,
            0.1864417820342759,
            -0.025241140220982637,
            -0.09114010475076377,
            0.017993571881003957,
            0.020949747525476875,
            -0.00571002524728364,
            0.18294229791691688,
            -0.17970987006619207,
            0.0799167631059984,
            0.12442884872047866,
            0.03799742067771236,
            -0.0014368000775712114,
            0.023732728179460177,
            -0.05574764771139141,
            -0.00401037217098229,
            -0.04996586840306983,
            -0.12494250060550434,
            -0.10349969783855899,
            -0.135989054665549,
            -0.16815075596609677,
            0.02123513817085816,
            0.11816898623116673,
            0.08778928217526207,
            -0.09205272335473028,
            0.02323835235870102,
            0.2319742128269277,
            -0.06278359986613168,
            -0.0012159181265848262,
            -0.16324249765901547,
            0.07308787153080082,
            0.12433056805422214,
            0.10727576999434055,
            -0.06451736158835708,
            0.15573965971778847,
            -0.11576637721445768,
            0.14798751475225175,
            -0.1554331164106615,
            -0.10862436254022001,
            -0.12129518773603483,
            -0.002889266396351586,
            -0.06824201925358955,
            -0.09341744729281087,
            -0.323458462580506,
            -0.006148143520160002,
            -0.2152620103906066,
            -0.022799345813608877,
            0.14091096456453442,
            0.003145053876111912,
            -0.04316368380862279,
            -0.04403150655294987,
            0.1765799224642364,
            0.0725413284408287,
            0.1328855676443324,
            -0.09297448196770527,
            0.19010981736927265,
            0.39923147407457216,
            0.20721435839435634,
            -0.14999208754545476,
            0.00556667915118265,
            -0.2146974194851886,
            -0.05808690274959171,
            -0.03753164377278221,
            -0.32192711953114383,
            0.046097307835525875,
            -0.2143461016555346,
            -0.08672429941108395,
            -0.1796231413983598,
            -0.04726017223917013,
            -0.12843067680964723,
            0.08022034201886732,
            0.07558564571759523,
            0.10233904355263404,
            0.04999874677273984,
            0.1544404150240657,
            -0.03023886489458011,
            0.11029413126871096,
            -0.05826587961489755,
            0.1372251440749117,
            -0.03003376329904478,
            0.07477502013830993,
            0.18752149661143172,
            -0.015136064712582489,
            0.030365149544973605,
            0.10753175918035915,
            0.049541549897885194,
            -0.28164970075095114,
            -0.021209499242601487,
            -0.013942234191575073,
            -0.1725188177389284,
            -0.06943299514147927,
            -0.04902503948618754,
            0.19902542159752093,
            -0.11538184594350176,
            -0.0733365504614548,
            -0.05000573007393721,
            -0.025644145909226455,
            -0.15983692573531005,
            -0.10336511737987832,
            -0.24250714516614522,
            0.14750383822533408,
            0.16275715148949196,
            0.08324745114663652,
            0.2550806625226771,
            -0.2693122229212921,
            -0.09253023907896023,
            0.06492686381893652,
            -0.023861804523538546,
            0.03381111538554494,
            -0.0565863020804744,
            -0.11220445006655426,
            -0.008990120755547204,
            0.0006384568930043607,
            0.08432626066164953,
            0.11969553281854163,
            -0.03373021137305213,
            0.16888092957117032,
            -0.24671931169316752,
            -0.04369779579115227,
            0.0912371072270529,
            -0.107389759388211,
            0.09261020898330342,
            -0.0006017164393194891,
            0.03487015982723265,
            0.14478706032162683,
            0.17467760921158848,
            0.15305284709564268,
            0.16064983917712386,
            -0.05933669193066151,
            -0.1057325294216693,
            0.012603773027263506,
            0.011998367627835009,
            0.013623007966154092,
            0.12434093150758299,
            0.018940401841768963,
            -0.06074653101324486,
            -0.1419127530888548,
            -0.08643679007761078,
            -0.045363934015786485,
            -0.06476043291236906,
            -0.06269870397844944,
            -0.007976347311755177,
            -0.06824007885839992,
            -0.017103126756094246,
            -0.0750963962181119,
            0.0858531996376192,
            -0.102203045951387,
            0.04332536876459679,
            0.09896275601075456,
            0.07407485761307533,
            -0.03575667389832744,
            -0.06303196527870718,
            0.03406955737771083,
            0.07224743835193358,
            0.17800169331070997,
            -0.017558447946361723,
            0.055317896804300645,
            0.1194268786415404,
            -0.008119503063207594,
            0.12401064296804873,
            0.2774905770621975,
            0.1754413926899647,
            -0.02985554678086413,
            -0.025071048963361976,
            0.027554948668700046,
            -0.04711615156109628,
            0.03438390849096191,
            -0.23112506983768272,
            0.041337905471581025,
            0.060336522088449626,
            0.14399873434213245,
            -0.26148548990003234,
            -0.10053203341545539,
            -0.13914061439960823,
            -0.0848069712574454,
            0.19747967806560895,
            0.056031917877596496,
            0.1606231364726709,
            -0.15846421012075176,
            -0.11058253250180666,
            0.1470247432631582,
            0.13467276955706908
          ],
          "mean_abs_cosine": 0.09987488952837305,
          "max_abs_cosine": 0.39923147407457216
        },
        "blocks.0.norm1.weight": {
          "shape": [
            256
          ],
          "structurally_comparable": false,
          "note": "no axis of length d_state=64"
        },
        "blocks.0.norm2.weight": {
          "shape": [
            256
          ],
          "structurally_comparable": false,
          "note": "no axis of length d_state=64"
        }
      }
    },
    "arm2_drift_vs_arm1_step_early": {
      "frobenius_norm": 24.334479176655613,
      "cosine_to_b_global": {
        "blocks.0.ffn.fc1.weight": {
          "shape": [
            1024,
            256
          ],
          "structurally_comparable": false,
          "note": "no axis of length d_state=64"
        },
        "blocks.0.ffn.fc2.weight": {
          "shape": [
            256,
            1024
          ],
          "structurally_comparable": false,
          "note": "no axis of length d_state=64"
        },
        "blocks.0.mixer.b_proj.weight": {
          "shape": [
            1,
            256
          ],
          "structurally_comparable": false,
          "note": "no axis of length d_state=64"
        },
        "blocks.0.mixer.k_conv1d.weight": {
          "shape": [
            64,
            1,
            4
          ],
          "structurally_comparable": true,
          "cosine_per_column": [
            -0.11896360111573198,
            0.1386627885617409,
            -0.00988743049624276,
            0.058953050917196284
          ],
          "mean_abs_cosine": 0.08161671777272798,
          "max_abs_cosine": 0.1386627885617409
        },
        "blocks.0.mixer.k_proj.weight": {
          "shape": [
            64,
            256
          ],
          "structurally_comparable": true,
          "cosine_per_column": [
            0.1785417428347985,
            -0.1172317610448491,
            -0.13535173418681457,
            -0.031415975161189914,
            0.06829149469748058,
            -0.207813999095625,
            -0.154451949966539,
            -0.32364639279223173,
            -0.14101618801279436,
            0.02903751236516024,
            -0.027901522196284004,
            -0.008522677400457174,
            -0.016334710386833873,
            -0.07865318192974045,
            -0.028042488036833214,
            0.09287577585584597,
            0.12260952502039137,
            0.12648076805668043,
            -0.20723044025789347,
            -0.14142134157153477,
            -0.20573523461473225,
            0.005384955864079063,
            0.08852812936986047,
            -0.08313847089987746,
            0.05435981365472858,
            -0.05314039947258505,
            0.0376738454425568,
            -0.1797081760582093,
            -0.020235914940313376,
            0.04642931506084328,
            0.05005009469769919,
            0.1523874550536119,
            0.15028298087076764,
            -0.11790284426964318,
            -0.158747244693062,
            0.04736129083495348,
            0.05521566668945882,
            -0.011471376951686771,
            0.06666717132590226,
            -0.13716441256543427,
            -0.10445636713443592,
            0.13462024389502614,
            0.060858663925754834,
            0.059473199019749505,
            0.02151720711854481,
            -0.10591279799028588,
            -0.05790439148450105,
            -0.156967001396785,
            0.056717119618699526,
            -0.16594460611506287,
            -0.01682726057681057,
            -0.04318955715947587,
            -0.07180805285524196,
            0.01172491073265753,
            -0.20912206092428917,
            0.2598653425188585,
            0.004089123415267198,
            -0.15723252378533867,
            0.03747422463220109,
            -0.10111070679176734,
            0.05830639678184651,
            -0.15199740365014255,
            -0.03307006360122228,
            -0.13525506033683857,
            0.013951765729323386,
            0.04400676500639013,
            0.023499308412960714,
            0.11108721734455644,
            -0.013695257708316581,
            -0.04260617362773485,
            -0.11764864120412238,
            0.09697057322144806,
            -0.09592107726842573,
            -0.1584441315583768,
            -0.26895346674242865,
            0.10871251338999532,
            -0.10186219154198083,
            0.0027947661483808837,
            -0.06837938463805346,
            -0.19274655671792754,
            0.4244929728041727,
            0.05323347138278635,
            -0.018373972980794868,
            0.16177975409785375,
            -0.06740890956849571,
            -0.02394609803306583,
            -0.02954119780005416,
            -0.07689479541029734,
            -0.15233508509688753,
            0.06296007675752878,
            0.03233390654148974,
            -0.11968534062487288,
            0.013086355495764068,
            -0.14128433065094093,
            0.12032401833091654,
            -0.13990668541471474,
            0.16974484196051035,
            -0.05027130301206576,
            -0.1987506604001101,
            -0.042762549858979725,
            0.28887637808533145,
            0.005316153191140784,
            -0.13787578998938588,
            -0.01745256133859579,
            -0.2022894688846328,
            0.14560898192975216,
            0.12484961069982749,
            0.06073699972386323,
            -0.02684682834731479,
            -0.07433881604978085,
            -0.03140849013613594,
            0.046597370417496446,
            -0.032684691695161236,
            0.06782773654132104,
            -0.17312429013120811,
            -0.09434564131254324,
            0.1440961443512015,
            -0.029755523554457344,
            0.06761711733762071,
            0.2482413295082638,
            -0.10650477925685362,
            -0.07778588295759323,
            0.011178202578439895,
            -0.0712447315363072,
            -0.08545340736392809,
            0.18707109716495338,
            0.10511424752392408,
            0.19421129775603352,
            -0.0449086941733402,
            0.30834244595709237,
            0.10556006716322466,
            -0.060961650212164875,
            -0.28592442291755715,
            0.08657246560748547,
            0.29560774503740467,
            0.06833830495779154,
            -0.10400905655657267,
            0.054848037740976026,
            0.03653186986642713,
            0.15850981465757197,
            0.04187625177220544,
            -0.031408385481124644,
            -0.18164057782823448,
            -0.12148003540133472,
            0.005165741701216515,
            0.12320196760849812,
            -0.13504446952930949,
            -0.04140238710286794,
            0.09713451670357762,
            -0.06832890458081392,
            -0.11613065373942187,
            0.02092836346764413,
            0.04869321717221895,
            -0.10934342935887015,
            -0.005372619879586332,
            -0.0593117152114403,
            -0.226291739655732,
            -0.029808707428731658,
            -0.2055955982215944,
            0.07157100194296571,
            -0.03834899208856489,
            0.12259367992094228,
            -0.09280358740274203,
            -0.006246115176710593,
            0.08807789724220898,
            -0.19255000387757557,
            -0.0029728472072315403,
            0.11441240358553723,
            -0.07537031470928536,
            -0.12931392843362197,
            0.06414558494940059,
            0.09171887275915472,
            -0.19663372930033624,
            0.0628085223296575,
            -0.030156545544903275,
            -0.06379126515608927,
            0.139485721191651,
            -0.026987218331659187,
            0.05083685844666721,
            -0.08044139682984151,
            0.2285230434709127,
            -0.18502027640182758,
            -0.19561560621243831,
            0.03405856170494171,
            -0.0014943803553789184,
            0.03160615713225483,
            -0.14807668345993327,
            0.10877457875062858,
            0.04374238630045591,
            -0.11036557577929623,
            0.0426111618582679,
            -0.002472185342605078,
            -0.12191303142556324,
            -0.03057154240322092,
            -0.0006966119026534533,
            0.031514367109051006,
            -0.2256277360263135,
            0.10457307458448005,
            -0.013293409453595202,
            0.044097304870462546,
            -0.10906211672735998,
            -0.04874745700404078,
            0.024943825775605527,
            -0.021365147914635046,
            0.06446359773059433,
            -0.01733272469298852,
            0.36777699081013265,
            0.10393554080941005,
            0.02755560738907319,
            -0.03128677814183501,
            -0.047528965532478804,
            0.07548920726831819,
            -0.12475854540139614,
            -0.12692949430558298,
            -0.018922680141470194,
            0.0010511111605425152,
            0.009139790527819871,
            -0.20475548243190655,
            0.012661699691489515,
            -0.09111988861529685,
            -0.04296171663844789,
            0.004119989988114078,
            -0.11900639622167232,
            0.19094278714713012,
            -0.03411610360195556,
            0.028231209087167437,
            0.052023207971120866,
            -0.0398701876850594,
            -0.1404857515061251,
            -0.1405564655898528,
            -0.15147979645501522,
            0.26963616637349663,
            -0.11431845552826245,
            0.08513376411001887,
            0.006440144576422233,
            0.07580535727466563,
            0.12321461153475917,
            -0.04279860987590248,
            -0.1651896979203556,
            -0.11487474236457682,
            -0.042365165741713784,
            -0.002408157824581589,
            0.051460587480842195,
            0.17486326819685902,
            -0.1543031085142183,
            -0.01814816775906716,
            -0.05246914571765766,
            -0.15456864495071726,
            -0.005179264802507571,
            -0.13950655946121943,
            0.0028385325007776146,
            -0.05511494254187122,
            0.010260048843012933,
            -0.01672548605939425,
            0.1833780298441037,
            0.10585157310660022
          ],
          "mean_abs_cosine": 0.09357972835951905,
          "max_abs_cosine": 0.4244929728041727
        },
        "blocks.0.mixer.o_norm.weight": {
          "shape": [
            64
          ],
          "structurally_comparable": true,
          "cosine_per_column": [
            -0.08150808091142449
          ],
          "mean_abs_cosine": 0.08150808091142449,
          "max_abs_cosine": 0.08150808091142449
        },
        "blocks.0.mixer.o_proj.weight": {
          "shape": [
            256,
            64
          ],
          "structurally_comparable": true,
          "cosine_per_column": [
            -0.11712957682231151,
            0.1767799254007123,
            0.18109895842863227,
            0.1793666217141375,
            0.05415972656997872,
            0.03235647887004717,
            0.15561767709776628,
            0.1301667099079984,
            -0.12369858146855271,
            -0.06305881293748823,
            0.11784730014635546,
            -0.1001314221342749,
            0.0673493328058641,
            -0.042739983068056264,
            -0.17402558850520167,
            -0.012949121981426757,
            0.1482144523870943,
            -0.18164953812161724,
            -0.17108369603006074,
            0.16757603557309725,
            -0.12773624782981546,
            0.339413071928704,
            -0.009654539423029681,
            0.11745129700855592,
            0.050271023502085774,
            0.1734924237552924,
            -0.0721244284873132,
            -0.1479448025216854,
            0.3166340832092586,
            -0.05570933395627115,
            0.026446861034879043,
            -0.1921175446717656,
            -0.009110572450083308,
            0.07916358000284035,
            -0.13462473491885396,
            0.2137399191430612,
            0.06791543161568436,
            -0.06773442470131885,
            -0.003553334225083147,
            -0.30294042197847293,
            0.019729982122144194,
            -0.06702794471066803,
            0.10389748410554128,
            -0.006507447815076309,
            -0.04323568524021648,
            -0.07623225840435593,
            -0.03404160820147548,
            0.003549516251118746,
            0.08055244576179642,
            0.16923097508556004,
            0.003665538790431119,
            0.07906660789507167,
            0.27539351746701723,
            -0.21870466965336513,
            0.21782638706885862,
            -0.15281118660430612,
            0.09108167649721825,
            -0.037039947412450785,
            -0.03427220963836957,
            0.13208350454321208,
            0.0049648541778873735,
            -0.1615688806276181,
            0.21026927261982614,
            0.3391792208460184,
            0.02427498532763708,
            -0.02624278299650429,
            -0.030911973750092855,
            0.12262527769930892,
            0.11899228982350964,
            -0.07883717922974268,
            -0.07942770412235615,
            0.11665972619722942,
            0.025820122567942385,
            0.05919843822356859,
            0.04310768782885796,
            1.7973095553947925e-05,
            -0.052562360674131295,
            -0.08431423753599297,
            -0.04654890122582925,
            0.2864804243804781,
            0.15772772896966242,
            -0.016282923894397842,
            -0.039492043694273705,
            -0.018679905749202367,
            0.07079093127899831,
            -0.0944005878740293,
            -0.04930394776618025,
            -0.05533271408296279,
            0.0856695606381441,
            -0.13939234227956648,
            -0.008164726251410287,
            0.15601934660177258,
            -0.14769090787667888,
            -0.3946569877448062,
            0.20171178331553297,
            0.06382453953661438,
            -0.16692689196810395,
            0.11744760888784227,
            0.04337254406081204,
            0.1846428993768803,
            0.07553766443124685,
            0.09401768595565206,
            -0.2228809771575913,
            0.004525772759979225,
            -0.06555307475354959,
            -0.06136539910131986,
            -0.052768273195014016,
            -0.18563238323153744,
            -0.05484293307291921,
            -0.019057936568354573,
            -0.3560128061988576,
            0.14256575411126776,
            0.004076169371824838,
            0.03254639944824381,
            0.16971417664464014,
            -0.013869036323087738,
            -0.13554148499123256,
            -0.04871361274213531,
            -0.11867840187181762,
            -0.007526989616748222,
            -0.0013684784442935197,
            0.06030982763916235,
            0.07965757389680918,
            0.14063585954912183,
            -0.04445440982315471,
            -0.19872380097816988,
            0.07143094863407749,
            0.047321616394479085,
            -0.18706542606833465,
            -0.06800223881651968,
            0.24056935256124257,
            -0.10033288978824684,
            0.14268405779172189,
            0.13629903252824285,
            0.06760185289231813,
            0.04401643941192951,
            -0.08368524349867972,
            0.14118176362759158,
            -0.11674188553883955,
            0.16075658843250906,
            0.09244777064234146,
            0.029558163352577518,
            0.19139607999245992,
            0.15660302932258743,
            0.016954581059064427,
            0.0363529568054417,
            0.014735882270386145,
            0.02699261035314426,
            0.11859454660176634,
            -0.1061658294730639,
            0.2935148932324766,
            0.013038876706504676,
            -0.05505414403719536,
            0.04622165169303521,
            0.07701664128046581,
            -0.14501231767385545,
            -0.1622463016823038,
            0.0022491329542536453,
            -0.00966212676797574,
            -0.045896252436519326,
            -0.07340387284806188,
            0.024014336876483945,
            -0.10418554523989235,
            0.009069417905808558,
            -0.20273516524342375,
            0.09887773693469458,
            -0.0680473660611634,
            -0.049744935981934926,
            0.03885419547952079,
            -0.05996762894197585,
            -0.09140041275436099,
            -0.04258025605537076,
            0.04898201989279508,
            -0.21295910042099578,
            0.1592599975230595,
            -0.20197663775457075,
            0.1763380362057972,
            -0.2840240734408463,
            -0.012514401609434464,
            0.03409294166000788,
            0.11116238051547063,
            -0.1384436405752368,
            -0.24214682895367026,
            -0.13409474382053446,
            -0.0946481890388967,
            -0.0030119329995582666,
            0.018478566768190357,
            -0.009688228589359272,
            -0.18137673665330165,
            0.0735762522596669,
            -0.27449261392279584,
            0.0630457396825491,
            -0.15868442401349395,
            -0.22106098451429937,
            0.11641291775296973,
            0.06031778957802452,
            -0.03644706496838058,
            -0.22631490174716457,
            0.20781207449669128,
            -0.05756892950990559,
            -0.228693402082468,
            0.04705092280660284,
            -0.08967948528349826,
            0.25978690513122665,
            0.022130978407279935,
            0.007085275666428419,
            0.16273957749818624,
            0.17635858079000694,
            0.10057120690834598,
            0.14868775740340134,
            -0.02497634286570549,
            0.037041771004593174,
            0.09359356308948959,
            0.07187845795996124,
            0.19405748890590996,
            -0.025578352865053628,
            -0.1358357503932592,
            -0.10866233368665895,
            0.03724876717217127,
            -0.011321455341069004,
            -0.1616292321650338,
            -0.18352294288358198,
            0.072990027757232,
            -0.0795157160517476,
            -0.1498631756428868,
            -0.16920288423544036,
            0.0253938965591531,
            -0.22835927020338598,
            -0.15633623763119925,
            0.18240409925139878,
            0.10026011818844839,
            -0.20104901797857894,
            0.04484120760535834,
            -0.10927280586329183,
            -0.056577758180572,
            0.03217236545330607,
            0.08219809688587261,
            0.019515372816612135,
            -0.03474185428306503,
            0.1405030340807924,
            0.03512211103808595,
            0.1333396893311872,
            0.020526772221585558,
            -0.06088920976891242,
            -0.012086238935999118,
            -0.14788021608168905,
            -0.034987345252472095,
            -0.009356506845992523,
            -0.2730408037578938,
            0.14680965200851936,
            0.0454324764800549,
            -0.09365895312942338,
            0.034228354855381116,
            -0.016930154483393207,
            -0.22388404340568435,
            -0.07899404888883568
          ],
          "mean_abs_cosine": 0.10357246295021313,
          "max_abs_cosine": 0.3946569877448062
        },
        "blocks.0.mixer.q_conv1d.weight": {
          "shape": [
            64,
            1,
            4
          ],
          "structurally_comparable": true,
          "cosine_per_column": [
            -0.11914584666099652,
            0.06138397147373359,
            -0.008329354188813148,
            -0.06630788427398801
          ],
          "mean_abs_cosine": 0.06379176414938281,
          "max_abs_cosine": 0.11914584666099652
        },
        "blocks.0.mixer.q_proj.weight": {
          "shape": [
            64,
            256
          ],
          "structurally_comparable": true,
          "cosine_per_column": [
            0.11113053458532529,
            -0.025650721830239875,
            -0.1851912604507695,
            -0.20747878082627214,
            0.15077824748625748,
            0.08009310058662059,
            0.017947207403819145,
            0.13584521081373535,
            0.1070357814158826,
            -0.07864827427213532,
            0.08632839064914835,
            -0.04629475800163784,
            -0.22008843804403722,
            -0.15310879687616283,
            0.1667082891563728,
            0.056789960998090715,
            -0.004763497594011471,
            0.03342928444679097,
            0.11146945628378391,
            -0.10932437660462334,
            -0.01556402005021356,
            -0.1005528418567035,
            0.03203952441526422,
            0.012970177005061569,
            -0.018288544028349292,
            -0.21661720406743235,
            -0.15045512030837047,
            0.09882492055737331,
            -0.18529923023519948,
            -0.24100445844921312,
            0.1389839941391209,
            0.12468933380808729,
            0.1797414582321545,
            0.03455569495038311,
            -0.10668750565421502,
            -0.06926298856683508,
            0.1251516012537231,
            0.016278783863208437,
            0.10512671098676218,
            -0.04698649227639752,
            -0.07908996293617196,
            -0.17907412267733483,
            -0.016620724640375013,
            0.04062756755523839,
            -0.12713142229198465,
            0.15731591896934644,
            -0.00035537687024154904,
            0.13327653234494158,
            0.1315692028920554,
            0.12967882780145196,
            -0.14289229361877903,
            0.09109627347712893,
            0.23607314301910726,
            0.10868801264067335,
            -0.15241403892629588,
            0.056194639935289954,
            -0.12706345183565512,
            0.040546756031114295,
            0.06276135743361574,
            -0.19526630373284645,
            -0.04639831918553148,
            -0.034699476986904815,
            -0.15299518536548243,
            -0.10805773173621691,
            0.1543041431928367,
            0.09750451110948682,
            -0.018191684365231366,
            -0.05322634116359502,
            0.03675360502816153,
            -0.10341516231922358,
            0.0821332921500428,
            -0.10813484230304847,
            -0.15005347814729816,
            -0.16962343305370645,
            0.06800047097549793,
            -0.12933279706995518,
            0.10297076878472178,
            0.10967369595440689,
            0.25421111860417583,
            0.106645466567802,
            0.2966759115443577,
            -0.019716423604673784,
            0.07139964418901622,
            -0.1484634426768582,
            0.06969242609001669,
            -0.10900877102377796,
            0.05981593599127935,
            -0.08928121439114188,
            -0.22058643935703418,
            0.06503930411647126,
            -0.26639880864567717,
            -0.02865393933039522,
            -0.0032430510846935966,
            -0.053658951783276676,
            0.014877483333616052,
            -0.19100376689049856,
            -0.03350816370073584,
            -0.08080647671878209,
            0.22719472563615178,
            -0.09570879336257772,
            -0.0007897576075650541,
            -0.05974074274265927,
            0.1043131092327488,
            -0.00025402362908289524,
            0.2466875165589005,
            0.16591967549720382,
            -0.04133626638696042,
            -0.17908191612621518,
            0.0705488892512876,
            0.19003625120361448,
            0.003262513726862633,
            0.2319034317399183,
            -0.0642556610150877,
            -0.13834712405811134,
            -0.01627325395216356,
            -0.07904307119891325,
            0.08281839820875582,
            -0.17037499385111324,
            -0.1223410126060824,
            -0.38518137786392637,
            0.00476313065910761,
            -0.21528541409912302,
            0.37007026570566776,
            -0.17094564318343378,
            -0.012496705569278673,
            0.24872241403228795,
            -0.062347932476470885,
            0.1284357339795838,
            -0.10423772551371982,
            0.12227681304655974,
            0.12448710730824827,
            -0.09291806754763184,
            0.13183881938247466,
            0.10996715380149158,
            -0.06596093743166524,
            -0.002714168025894583,
            0.1756706861872585,
            0.22878871157257652,
            0.11195336330662416,
            0.12159288854273465,
            -0.04490755160032726,
            0.008595968672414949,
            0.15690990493270815,
            0.012330944988745797,
            -0.1390986434915598,
            -0.10908962105762648,
            0.11046199032017158,
            -0.21247488974565173,
            -0.17329921991206254,
            0.011489251692639856,
            -0.141026674944423,
            -0.017151576386413448,
            0.17277812743535895,
            -0.013714817741096562,
            0.15068789227017185,
            0.06875233731760755,
            0.30153391524483364,
            0.01701856293153263,
            -0.003094694816709114,
            0.10927422094673331,
            0.17073010876853434,
            -0.10052096852493993,
            0.011051881469726856,
            -0.03831675386968649,
            -0.053455750236212206,
            0.09056496400297875,
            -0.07094183247982422,
            0.08948707246993202,
            -0.22589900826155487,
            0.05378889820193126,
            -0.12628194206123947,
            -0.041930323438040686,
            -0.05310809977943325,
            0.12830031983024498,
            0.26330083750562555,
            -0.06686440588868754,
            -0.03493650814611572,
            -0.1275732165951677,
            -0.04348455972007383,
            -0.14450192091559474,
            0.1520240172451225,
            0.038909841661345736,
            -0.08545732361998297,
            0.11177030637526292,
            0.035033675631434336,
            0.18865983093196662,
            -0.09010839357890071,
            0.03436917144776886,
            0.09903526549872305,
            0.02466456685531376,
            0.020081073523010494,
            -0.08841183857118831,
            0.013613995634570261,
            -0.04686207199805196,
            0.14621189890149783,
            0.25209150617318654,
            0.0759150092788887,
            0.14270038821726921,
            0.08175542077835701,
            -0.02614738969618171,
            -0.010980400216363205,
            -0.12357759899277251,
            0.030207029750491207,
            -0.024369242560990663,
            0.034234082299556885,
            0.20712878321278527,
            0.15046594095642135,
            -0.1198251452661129,
            -0.0043838173607460805,
            0.13548488943957043,
            -0.01719813597098367,
            -0.021797666333445303,
            0.033555235483531495,
            0.057334935780971395,
            -0.09867120977604457,
            -0.22368965445628347,
            -0.03345201114804996,
            -0.14788183968762297,
            -0.3041506912817322,
            0.06402950587713291,
            0.022385055600853982,
            -0.12027086153525791,
            -0.09698336850203602,
            0.03331472414830923,
            0.36422016677339797,
            0.15727251728623456,
            0.1087429690169852,
            0.03324496440189838,
            -0.19321509502906578,
            -0.029400109699845536,
            -0.004917863809752998,
            -0.14193470990340584,
            -0.019782568586346822,
            -0.13817184457334206,
            0.05612015351625261,
            -0.07299559663244452,
            -0.11060132771229268,
            0.03130304998442939,
            0.04973332483719789,
            0.12479821778729107,
            0.03718823866720152,
            0.11310161275673175,
            -0.1619529538846601,
            -0.11709455173870288,
            0.049242344008336644,
            -0.013403822966552846,
            -0.06893113685580027,
            0.28631839647235613,
            -0.023808224053303753,
            -0.1161100231139919,
            -0.07554853779914988,
            0.13882215695303465,
            -0.008508984449884741,
            0.09563295445040575,
            -0.055984518842777824,
            -0.11622279233983017
          ],
          "mean_abs_cosine": 0.10311020893279735,
          "max_abs_cosine": 0.38518137786392637
        },
        "blocks.0.mixer.v_conv1d.weight": {
          "shape": [
            64,
            1,
            4
          ],
          "structurally_comparable": true,
          "cosine_per_column": [
            0.23448187642311724,
            0.01786817301183216,
            -0.2526692050793198,
            -0.14275715362770783
          ],
          "mean_abs_cosine": 0.16194410203549425,
          "max_abs_cosine": 0.2526692050793198
        },
        "blocks.0.mixer.v_proj.weight": {
          "shape": [
            64,
            256
          ],
          "structurally_comparable": true,
          "cosine_per_column": [
            -0.19081158408247686,
            -0.03479175874686355,
            -0.08324495331435829,
            0.06836372578361156,
            -0.0536806595375997,
            -0.08145327086522469,
            -0.021583916958623262,
            0.002998196881289743,
            -0.03177945606506949,
            -0.184744318787492,
            0.15102212100864848,
            -0.0014589611454147566,
            -0.07308014033409513,
            -0.10523401690054845,
            0.07387313383448754,
            0.05661738030281489,
            -0.1217909775856345,
            0.2095196307166648,
            0.016862058928784562,
            -0.0021726158209429223,
            -0.10523695866887947,
            -0.0978248145043455,
            0.009003772116174992,
            -0.010203417355536622,
            0.03342517758818154,
            0.035425629906581255,
            0.21361933249066994,
            -0.09661484798288053,
            -0.05797355819177007,
            0.08981324143053575,
            -0.06276972485091695,
            -0.025783501475624488,
            0.11459219843807235,
            0.14256373018875704,
            0.10161151290168682,
            0.008483856459289351,
            -0.022938964847498827,
            0.07648101780360475,
            0.05277022603146747,
            0.048649955081789674,
            -0.053600050248882765,
            -0.14700955729910423,
            -0.09162249437422498,
            -0.04056483654296429,
            -0.0633731675001804,
            -0.0005324898507159251,
            0.01302660039473358,
            -0.03238259103446255,
            0.1350061086766932,
            -0.25313706617461595,
            0.030887198342049334,
            -0.04471159715124547,
            0.13160725319611474,
            -0.019124198961482316,
            -0.012608330807528581,
            0.07406110522229499,
            0.017201772434892782,
            0.19999874362657533,
            -0.1697556806658692,
            -0.0600554585654141,
            0.07070603844055164,
            -0.10204767446972442,
            -0.031476196662986455,
            -0.032163111618795974,
            0.04913753453671844,
            0.17030882308594075,
            -0.05988713866124623,
            0.03747496105283458,
            0.039849850483517295,
            -0.010739616791349977,
            0.010893847819796052,
            0.08706393965635255,
            0.1712908019334784,
            0.02637713212055268,
            0.012566192934558146,
            0.20959632561089336,
            0.07199176924173324,
            0.022552367836732763,
            0.2514249538465094,
            -0.20308906924352962,
            0.18066941079123716,
            0.05626748417479527,
            -0.033872138046898446,
            -0.007413036808233124,
            -0.11799117611154364,
            0.028778636760189526,
            0.12728205902290232,
            0.055200504646357416,
            0.021527980997817053,
            -0.1990105327472388,
            -0.20252526649148586,
            0.06065095139011512,
            -0.18333615147273322,
            0.08159857425445158,
            -0.13407435850728572,
            -0.13584654022385967,
            0.23539494357385105,
            -0.010353788214700404,
            0.031098590242893725,
            0.0001301226103479933,
            -0.05987260442718873,
            -0.014002852865883974,
            -0.05134887584924717,
            -0.18080684598217314,
            0.032043063057738026,
            -0.09070306497147868,
            0.09954542772435294,
            0.014977773995603016,
            0.13507703573265406,
            -0.07223704242603173,
            -0.08303030906604314,
            -0.008139155652941292,
            -0.05846028943866745,
            -0.08018496211831155,
            -0.08374929032385489,
            0.020900979617490777,
            0.0016867820417559738,
            -0.05277953266591652,
            -0.004369365280379924,
            0.1252054304867336,
            -0.12194183465340763,
            -0.0563889981598282,
            -0.08488825941695007,
            -0.013721004124629444,
            -0.20039577547162582,
            0.16437165130641454,
            -0.1526655617938994,
            0.1932862961474104,
            -0.0416853771643055,
            0.14573535247121094,
            0.1329539842523074,
            0.19604545551154698,
            -0.059020519101492995,
            -0.12505628126403004,
            -0.24121333221714444,
            0.013292778706917648,
            0.11769738243068259,
            -0.13300068564203713,
            0.1306487851508188,
            0.038073112446830225,
            -0.048585987153172895,
            -0.03577419477227301,
            -0.040853033705741094,
            -0.039228264878660934,
            -0.2059985007577797,
            0.13710664452096286,
            -0.10389529277754904,
            0.08082501716011728,
            0.01773314817817722,
            -0.06840208656633216,
            0.10211062841842311,
            -0.13252680534590777,
            0.034662745022952024,
            -0.02166461483559392,
            0.1835321029183373,
            -0.04430230204650198,
            -0.12664868230266027,
            -0.11386570231559574,
            0.0925338104526143,
            0.09080288945389875,
            -0.10271254501039233,
            0.004211436392521555,
            -0.05611589003827283,
            0.016637245824007895,
            -0.02640351221451959,
            -0.15950421770145357,
            0.02695117541967918,
            -0.16706842632423277,
            -0.10458330866317371,
            0.028691906380126288,
            0.08221616831439128,
            -0.0754478250466174,
            -0.04482768227067172,
            -0.1682141506851508,
            0.09030274642709234,
            -0.015347970657153103,
            0.054063824668133406,
            0.14131496759302886,
            0.09765128512379716,
            -0.027166577614710804,
            0.050427351195986465,
            -0.04269101153893771,
            0.08565762446539263,
            0.04184334820040985,
            -0.14167082449341645,
            0.1653908277635601,
            -0.05796049283807152,
            0.1410009916475433,
            0.07297864900717517,
            0.019904170046885016,
            0.19240111715139108,
            -0.04788068507828114,
            0.10159070250909545,
            0.09010875824377658,
            0.02909862945765256,
            0.05570111389781989,
            0.037059352349334995,
            0.17106937682094275,
            0.01424159494225755,
            0.05069383596517564,
            0.17028953542162423,
            -0.09394142185922852,
            -0.08594617732362016,
            -0.027918992305550654,
            0.17070093123897284,
            -0.08705165060793142,
            0.0016109759754803147,
            -0.015095961502464247,
            -0.17965763409253346,
            -0.14499076107879094,
            -0.11407591691663728,
            0.009531571811713761,
            -0.0938714123275595,
            0.14265872779994807,
            -0.07897439388518832,
            0.07611065954654268,
            -0.06355822196474854,
            0.07530869290069446,
            -0.01902063361912285,
            -0.2282492644264524,
            -0.08240430644640447,
            -0.10705785103312018,
            -0.18687744393562417,
            0.17217506096614413,
            0.11534236215965195,
            -0.07293454528186447,
            -0.04713825279859296,
            0.21120361501636986,
            0.08682882362478951,
            -0.17959711107015489,
            -0.02616633079798609,
            -0.06722351894661754,
            0.1246642915162328,
            0.09413714375691673,
            0.03779290303870715,
            0.07609982482502892,
            0.03738966982355042,
            0.14567871743929847,
            -0.03981441503638632,
            0.15789253015945737,
            -0.14254722995092978,
            -0.0842803860308694,
            0.022650944571975272,
            0.07170061466015981,
            0.04149954207361172,
            -0.23722226201581578,
            0.019142313702715182,
            -0.052267065576458334,
            -0.04981145765429178,
            0.33265374322385555,
            0.04143474648943775,
            0.03759838024781851,
            -0.044784495749463096,
            -0.19099702641483474,
            0.13724778485592742,
            0.05230831770668654
          ],
          "mean_abs_cosine": 0.0862928971095612,
          "max_abs_cosine": 0.33265374322385555
        },
        "blocks.0.norm1.weight": {
          "shape": [
            256
          ],
          "structurally_comparable": false,
          "note": "no axis of length d_state=64"
        },
        "blocks.0.norm2.weight": {
          "shape": [
            256
          ],
          "structurally_comparable": false,
          "note": "no axis of length d_state=64"
        }
      }
    },
    "arm2prime_drift_vs_arm1_step_early": {
      "frobenius_norm": 23.758507618324316,
      "cosine_to_b_global": {
        "blocks.0.ffn.fc1.weight": {
          "shape": [
            1024,
            256
          ],
          "structurally_comparable": false,
          "note": "no axis of length d_state=64"
        },
        "blocks.0.ffn.fc2.weight": {
          "shape": [
            256,
            1024
          ],
          "structurally_comparable": false,
          "note": "no axis of length d_state=64"
        },
        "blocks.0.mixer.b_proj.weight": {
          "shape": [
            1,
            256
          ],
          "structurally_comparable": false,
          "note": "no axis of length d_state=64"
        },
        "blocks.0.mixer.k_conv1d.weight": {
          "shape": [
            64,
            1,
            4
          ],
          "structurally_comparable": true,
          "cosine_per_column": [
            -0.17963438454765707,
            -0.1524329670939233,
            -0.37395081025053745,
            -0.005132322146092556
          ],
          "mean_abs_cosine": 0.1777876210095526,
          "max_abs_cosine": 0.37395081025053745
        },
        "blocks.0.mixer.k_proj.weight": {
          "shape": [
            64,
            256
          ],
          "structurally_comparable": true,
          "cosine_per_column": [
            -0.015077972538521937,
            0.013608371752507217,
            -0.007398280162540248,
            0.1614311256940671,
            -0.13565361966108486,
            -0.09189921214602326,
            -0.039538241585737904,
            0.038923457357633674,
            -0.23740424325180434,
            -0.10463470634471995,
            -0.12921570858388162,
            -0.04682875848642404,
            -0.1070126277493793,
            -0.2163462800836553,
            0.24103342288093976,
            0.18721511815744535,
            -0.077381913312901,
            0.23010542263556122,
            -0.050638066542120615,
            -0.08843341883842663,
            -0.04407386309378923,
            -0.21682924743358206,
            0.11961217280370443,
            -0.10977076280972416,
            -0.07652143730403961,
            -0.18137361441084288,
            -0.11775878764498147,
            0.08780545491424481,
            0.24780663866971733,
            0.09824987769687128,
            -0.10337419369257614,
            0.094846206523598,
            -0.16216961079881462,
            0.07255919924567686,
            -0.13860769900130376,
            -0.06565674005426293,
            0.02185549989965333,
            0.12368175338148454,
            0.06414968924887476,
            -0.08123895846076151,
            -0.1927808560426637,
            -0.06357825904524979,
            -0.10429946388979855,
            0.24442667255815648,
            0.015438712025512369,
            0.15661978561119508,
            -0.04050181564642821,
            0.10541666744631696,
            -0.02617775275543895,
            0.00898650224299058,
            -0.09896793851024303,
            -0.2007148286653801,
            0.057021286070672736,
            -0.00492698029337637,
            -0.35839472751221524,
            0.3859704601102509,
            -0.3462492976851546,
            0.11648183412693458,
            0.32939306335013585,
            0.04839969155303003,
            0.13463166549183617,
            -0.018472134806398883,
            -0.19394058111894474,
            -0.12499729183353192,
            -0.16262175929476463,
            0.20487008453203148,
            0.10609172440378586,
            0.2714850609310146,
            -0.04348885942337298,
            0.04323807477416968,
            -0.1417100367937899,
            0.137502044325251,
            -0.15609791011756388,
            -0.13332004855444987,
            -0.2751409386407576,
            0.15569073000364042,
            -0.2753999584092614,
            0.0748449201764459,
            0.1966302517398505,
            0.06700485753691786,
            0.13916201168209974,
            0.2348418168318559,
            0.09734805503786309,
            0.01155775939002547,
            -0.03148970770138456,
            0.003181307503704458,
            0.3436560527339366,
            0.1043306568924929,
            -0.12081022243694578,
            0.04456236034072567,
            0.05002076414657519,
            -0.1314560631345395,
            0.04647487751635585,
            -0.03657460486935992,
            -0.014683383384293988,
            0.09071663910413283,
            -0.06651471694816481,
            -0.04020867184928613,
            0.024881082790201677,
            -0.036148361842096084,
            -0.24769915239235712,
            -0.2765272188274583,
            -0.36755655023285466,
            0.30364275964006915,
            -0.10607149028005625,
            0.16097310383987334,
            0.010351681183974356,
            -0.04676535663501679,
            -0.16607407471723096,
            0.08178223971407234,
            -0.0872823031535794,
            -0.36635519478048345,
            -0.2177282176651247,
            0.13856823329051568,
            0.10321635247660393,
            0.12320704792909112,
            0.22320957712350886,
            -0.17730627333592108,
            -0.04251284743764248,
            0.0004514648781098152,
            0.18079161837447746,
            -0.06183491194566337,
            -0.08548125775357172,
            -0.02651975233918563,
            -0.06067149139441259,
            0.22633613213473955,
            -0.03336220594726358,
            0.1485358180744658,
            -0.29531842154405935,
            0.14342361851555394,
            -0.22532000044332018,
            0.024837524063158777,
            -0.03447607149940909,
            0.1531822439133175,
            -0.11732878067523274,
            0.058097507716588254,
            0.2203195975266805,
            -0.0661734217649717,
            -0.1771194803480726,
            0.2827144211371369,
            -0.09457073660409204,
            0.21063033393195066,
            0.03566566384454541,
            0.2811551700675816,
            0.22376524276960957,
            0.0801227633582233,
            -0.19227905630307582,
            0.13641747822662673,
            0.08217613050388228,
            -0.09007306543334873,
            -0.042515091964834585,
            -0.09586160610707849,
            -0.022701613876105933,
            -0.06725917414602935,
            -0.0009914725237599783,
            -0.055436518122761645,
            -0.1697949260681443,
            -0.14545876975445743,
            -0.1330744240862734,
            0.19376498830900932,
            -0.2291085996488274,
            0.06409759304875023,
            -0.22162376416367502,
            0.12514737802887166,
            0.10710106749402361,
            -0.007130843118395154,
            -0.05366564911881754,
            0.0922897958628989,
            -0.02352354294208429,
            -0.01292698002371832,
            -0.12989280641379722,
            0.06132579600775881,
            -0.36022569439742,
            0.01818405789802053,
            0.2235179385088067,
            -0.24930512257223197,
            0.17787367911587926,
            0.20505694445655215,
            0.12362873139207642,
            -0.21114570338559316,
            0.010506400071176486,
            0.055989968839131064,
            -0.02347576601356183,
            0.033413381755889905,
            -0.06345156855583088,
            -0.10182149241395556,
            -0.23587401605881245,
            0.0006043974230371501,
            0.02445998103894935,
            0.18437128433023953,
            -0.07631505696438122,
            -0.12166540444205455,
            -0.09814511361908183,
            -0.12879573733243882,
            0.23136644374885001,
            0.07988839188397198,
            -0.03857319926883338,
            -0.00012869976357595696,
            -0.12687132371795423,
            0.248164421614879,
            -0.15835007847049812,
            -0.1325108701955028,
            -0.1167929409744191,
            0.30271624963737737,
            0.11816718334215602,
            -0.2383372613841347,
            -0.05635938090204636,
            -0.04308069857321356,
            -0.06987310922070508,
            0.12750966305284295,
            -0.0021369334112143613,
            -0.03393562211624071,
            0.14395541228625827,
            0.2081873774515619,
            -0.026806914793288766,
            0.033983974379272884,
            0.018795208944806983,
            0.14570426450577206,
            -0.044700564749161856,
            -0.08640609088223364,
            -0.01802363236231979,
            0.1480829909890806,
            0.26697839289914965,
            -0.110731065442119,
            -0.19797854902552758,
            -0.164767305540311,
            0.018465619329427647,
            0.09470016530298911,
            -0.038724264287227535,
            -0.2341569642491004,
            0.06585264134079041,
            -0.06189823531623134,
            0.007392138668501652,
            0.1488216026395937,
            0.1559514848430749,
            0.05713149915742491,
            0.12499728157594983,
            0.1514631739280006,
            -0.368167734548,
            -0.05899253881300815,
            0.09996008927699465,
            -0.035851750959809865,
            0.04715825225767854,
            0.12659983210633075,
            -0.0077546447412710105,
            0.0810147729624366,
            0.07919583170549732,
            -0.33462758220075195,
            0.31754210138328937,
            -0.09166650112892678,
            -0.03239743783275991,
            -0.16904309102813073,
            -0.17198394367360004,
            -0.001796558685871981,
            -0.08621916972014504,
            0.21672353065313504
          ],
          "mean_abs_cosine": 0.12204250612494932,
          "max_abs_cosine": 0.3859704601102509
        },
        "blocks.0.mixer.o_norm.weight": {
          "shape": [
            64
          ],
          "structurally_comparable": true,
          "cosine_per_column": [
            -0.04500621710761232
          ],
          "mean_abs_cosine": 0.04500621710761232,
          "max_abs_cosine": 0.04500621710761232
        },
        "blocks.0.mixer.o_proj.weight": {
          "shape": [
            256,
            64
          ],
          "structurally_comparable": true,
          "cosine_per_column": [
            -0.22019812353821563,
            0.05079471899307468,
            -0.0680034391544042,
            0.025241181831023106,
            0.013604133851300819,
            -0.024854927675537233,
            -0.05349423018103722,
            0.0022991127431438393,
            -0.04784459562409845,
            0.027712151064182507,
            0.14435171356012785,
            -0.17328598885678678,
            0.07759515860923073,
            -0.128302465980851,
            -0.019616738359269158,
            0.05312893533890727,
            -0.05190786322724974,
            -0.1725531393093298,
            -0.08381773960260606,
            0.03461256013301117,
            -0.01729940295742335,
            0.05482178718280453,
            -0.15210024626289245,
            0.08252487382603908,
            -0.10553197048415183,
            0.03583465824014332,
            -0.10275678826015931,
            -0.12468252471327808,
            0.14904492748755166,
            -0.08724744689189123,
            -0.15336611510781956,
            -0.161738220328447,
            -0.06513436984223953,
            -0.01782328080078609,
            -0.12977132808764796,
            -0.01801425056006835,
            0.0014309798559194419,
            -0.11459872921523126,
            -0.10909475196591162,
            -0.012318606852808566,
            -0.154011572046492,
            -0.12812650734285708,
            0.02924537626091622,
            0.07252251827015915,
            0.09136138554378152,
            -0.16434150306684958,
            -0.018570422615313626,
            -0.10093722532967565,
            0.08875565186260555,
            0.005583086105927033,
            0.04706947865803641,
            0.04535105850897801,
            0.002919982998101659,
            -0.09787720558952512,
            0.02108759016797152,
            -0.1588609142630845,
            -0.16670242770756044,
            -0.15483586897913368,
            -0.25558857670332685,
            0.11353538113539652,
            0.05746508031018538,
            -0.06975491375079092,
            0.22476929474483573,
            0.045107042547242536,
            -0.07160572968337768,
            -0.062148868468335124,
            -0.18791792557833276,
            -0.052170034133172616,
            0.05167686361655796,
            -0.02266343147199779,
            0.024732721357617688,
            0.21294244173245952,
            0.02748835637393212,
            0.032217844664198775,
            0.0544192527379683,
            0.055139337940446384,
            -0.12778368040438345,
            0.3089864078869003,
            0.03566798711352831,
            0.24719562456672664,
            -0.16244586890393173,
            -0.07165592227573127,
            -0.041297872564863766,
            0.24415374742854934,
            0.09169175673424443,
            0.006825749826214445,
            -0.10710764073945787,
            0.12090492539769343,
            0.05938603075366353,
            -0.053092120562697215,
            0.0532918886899337,
            0.15864797751264267,
            0.02951350570448245,
            0.06418797176400913,
            -0.036712160265993055,
            0.05444871416330248,
            -0.19692940230778946,
            -0.07888245390792033,
            -0.05904119804731034,
            0.07890579085151922,
            -0.0005086472173014005,
            0.007896594398788382,
            -0.04911363016518118,
            0.037404266486366744,
            -0.05950771601208797,
            -0.040113034319379466,
            -0.0037287266352968407,
            -0.10466618523589152,
            -0.020377032035850166,
            0.14119317588951324,
            -0.15465968168989225,
            -0.016400144039151653,
            0.026893265166052897,
            0.01624688146370165,
            0.21250628993136692,
            0.18884150490827956,
            -0.27002853053167386,
            0.16416634274008596,
            0.14169798337437867,
            -0.06904827001667298,
            -0.11760766404940509,
            0.0982210579898167,
            -0.058569367827237505,
            0.258776611723281,
            -0.1077049146171481,
            -0.09850475926447583,
            -0.1245504471125978,
            0.04001960286988695,
            -0.13301931097762018,
            -0.12504577880902382,
            0.049559955360121234,
            -0.09690902963429511,
            -0.029557807654948906,
            0.10513224966212291,
            -0.0816831478652541,
            -0.06456207352280159,
            -0.0838050694468224,
            -0.022474235691304495,
            -0.09860882190480048,
            0.1555904973054811,
            0.14800207773443153,
            -0.0004028118002101879,
            0.012823548507644705,
            -0.0697794455225851,
            -0.09116350912914217,
            -0.09303415047416046,
            0.03686219908491921,
            -0.11828448858474752,
            -0.11915716756449277,
            -0.12285832255220586,
            0.09584541220174056,
            0.03685813008413902,
            -0.12513078307107967,
            0.18833166379866986,
            -0.017588512681323165,
            -0.06876289270410126,
            0.005701258635369398,
            0.01337883277467685,
            -0.04700415876227155,
            -0.006409525645688486,
            0.12061167091372464,
            0.24917606810408718,
            -0.19395681643433685,
            0.017922419149995584,
            0.014842077389981619,
            0.15338417613381258,
            -0.09531616654403648,
            -0.11578340313708278,
            -0.061952132905118557,
            0.004866576891159657,
            -0.10190911935475461,
            0.026255114487099326,
            0.03903149484979721,
            -0.07267428895490192,
            0.04297037227553862,
            -0.008743374719625767,
            -0.057819010710754855,
            -0.27018010639916296,
            -0.18907522687361225,
            0.20484582004685853,
            0.025627486641198162,
            -0.00865062853038925,
            0.09537215200040736,
            -0.027572513128317037,
            0.029345657690814504,
            0.1597659057093883,
            0.14745780115527288,
            0.12547070581802441,
            -0.07908336479143337,
            -0.010513264202609406,
            0.06602919388325187,
            0.09265869888370395,
            -0.16365162479106324,
            0.033341761546855496,
            -0.16131220778146396,
            -0.07950140214243098,
            0.16430716790592342,
            -0.15782762708352693,
            -0.09350186729193748,
            0.05179848595134974,
            -0.021351566698516924,
            -0.09499190760233438,
            -0.19220142301667342,
            0.18204445604949346,
            0.10204728564429569,
            0.0375041510510425,
            -0.020901925676940145,
            -0.06398313747096081,
            0.008904762405401827,
            0.12347055911725492,
            0.14025390516239486,
            -0.12666368704766087,
            -0.025711995215633845,
            0.17464451504516232,
            0.014505236827592471,
            0.1231938713376823,
            0.02192352694525886,
            0.04543374854732271,
            -0.06607126138071723,
            0.003567470466913024,
            -0.12904883984597115,
            -0.2575689041397441,
            0.08464363775359819,
            0.24554928958663183,
            -0.1545400260558021,
            -0.15657489933385518,
            0.20963111561491463,
            -0.002015017230880368,
            0.21417727453727603,
            0.0585130819104442,
            -0.08792531290348579,
            -0.1280419505749887,
            0.09856736773338375,
            0.03862835472861019,
            0.1171021208162711,
            0.09134277042224409,
            0.1447959603680208,
            -0.03215579615934598,
            0.006284294900542596,
            0.11131816718612977,
            -0.02536832571372163,
            -0.024243733952862015,
            0.10466214208923236,
            -0.1462228470025419,
            -0.2015706302962424,
